{
  "Config": {
    "VocabSize": 4,
    "EmbeddingSize": 32,
    "ContextSize": 8192
  },
  "Weights": {
    "Embeddings": [
      [
        -0.022463622,
        -0.055443387,
        0.03969091,
        0.009666381,
        -0.00043101495,
        -0.094157495,
        0.040776487,
        -0.06062635,
        -0.029763743,
        0.07870095,
        0.07050796,
        -0.064434186,
        0.03747772,
        0.08202345,
        -0.10086288,
        0.0059341313,
        0.08691695,
        0.06380317,
        -0.05289879,
        -0.08869191,
        0.09418393,
        0.065292634,
        -0.04227987,
        0.03096851,
        0.056582537,
        -0.00483628,
        -0.020642027,
        -0.054912496,
        0.082184516,
        -0.06830017,
        0.04030474,
        0.049832784
      ],
      [
        -0.07978305,
        -0.04387418,
        -0.019564856,
        -0.04190789,
        0.09397346,
        -0.010264158,
        0.08232476,
        0.0397563,
        0.041954085,
        0.07444351,
        -0.07217573,
        -0.09171257,
        0.05890697,
        0.040048394,
        0.0007966684,
        -0.09272786,
        -0.101045065,
        -0.001696585,
        0.032977875,
        0.042513516,
        -0.05009145,
        0.015329351,
        0.048084952,
        -0.09519055,
        0.026208019,
        0.01869489,
        0.05951023,
        -0.10140544,
        0.08505413,
        0.08694681,
        0.03986096,
        0.012553499
      ],
      [
        0.015202305,
        0.020486841,
        0.011715038,
        0.033428233,
        -0.028267376,
        -0.009696396,
        0.096936785,
        -0.056361474,
        0.055421937,
        -0.01562159,
        -0.029096767,
        0.059000026,
        0.08681182,
        0.06966426,
        0.06592553,
        -0.09509594,
        -0.05539424,
        -0.027903505,
        -0.053830713,
        -0.005880759,
        -0.07232932,
        0.011974192,
        -0.046175446,
        0.056557138,
        0.0093252845,
        0.080632314,
        0.006112961,
        0.01780103,
        -0.0181215,
        0.035127178,
        0.03002324,
        -0.08278308
      ],
      [
        -0.009215342,
        -0.06791392,
        -0.0016330616,
        -0.032979246,
        0.0040371222,
        -0.07099272,
        -0.003077676,
        -0.050218835,
        0.022887392,
        -0.08659082,
        -0.07424475,
        0.09718665,
        -0.0758833,
        0.055171244,
        -0.028243018,
        -0.09197158,
        0.09110509,
        -0.022972606,
        0.029152052,
        0.018685391,
        0.013314259,
        -0.005015357,
        0.03983517,
        0.09379596,
        0.030785538,
        -0.070213124,
        0.091168374,
        -0.089507885,
        -0.022387339,
        -0.094811395,
        -0.0048873364,
        0.005080641
      ]
    ],
    "OutputWeights": [
      [
        0.04870177,
        -0.011036319,
        -0.077204354,
        0.017340252
      ],
      [
        0.072702415,
        -0.08931022,
        -0.021708414,
        0.093725614
      ],
      [
        -0.028125377,
        0.0733635,
        0.03171209,
        -0.004139449
      ],
      [
        -0.015915787,
        -0.00642061,
        0.036567386,
        -0.032130945
      ],
      [
        0.09109161,
        -0.04077271,
        0.08513896,
        -0.090926975
      ],
      [
        0.040606428,
        -0.019404108,
        -0.011275353,
        -0.049864754
      ],
      [
        0.025167003,
        0.009141508,
        -0.04824667,
        -0.016205503
      ],
      [
        -0.042686857,
        -0.055539355,
        -0.03882844,
        -0.07027008
      ],
      [
        -0.08873167,
        0.058896013,
        0.013894642,
        0.013269642
      ],
      [
        -0.09358376,
        -0.055016987,
        -0.01664514,
        -0.08395971
      ],
      [
        0.009951204,
        -0.06718237,
        -0.05593545,
        -0.102127634
      ],
      [
        0.09786066,
        -0.047443386,
        0.040972613,
        0.06785751
      ],
      [
        -0.016213655,
        0.0087333815,
        0.05777093,
        0.08877003
      ],
      [
        0.07974086,
        -0.045561694,
        0.07511764,
        -0.0038768437
      ],
      [
        0.018402614,
        0.037551407,
        -0.03704321,
        -0.07197421
      ],
      [
        -0.05267003,
        0.027290124,
        0.04883525,
        -0.095522456
      ],
      [
        -0.05069954,
        -0.011418656,
        -0.09162974,
        -0.080494665
      ],
      [
        -0.03391066,
        -0.081837624,
        0.0088715395,
        -0.07078261
      ],
      [
        0.08748434,
        -0.048457548,
        -0.022638276,
        0.09560479
      ],
      [
        0.0755197,
        -0.03830753,
        0.06378101,
        -0.042349998
      ],
      [
        -0.09456184,
        -0.057630356,
        -0.048581947,
        0.07127169
      ],
      [
        0.025096739,
        0.083178826,
        0.039401487,
        -0.0051963995
      ],
      [
        -0.0027435785,
        -0.071833156,
        0.07635971,
        0.08651039
      ],
      [
        -0.05937444,
        0.041845907,
        0.030171279,
        0.0068945684
      ],
      [
        -0.009590907,
        -0.064507015,
        -0.0475788,
        -0.08982384
      ],
      [
        0.046535432,
        -0.045167413,
        0.066804394,
        0.027584055
      ],
      [
        -0.017843151,
        -0.081368335,
        -0.0911683,
        -0.06862208
      ],
      [
        0.010728365,
        0.04892443,
        -0.08078331,
        -0.0975217
      ],
      [
        -0.020208873,
        0.078965314,
        -0.0028637769,
        0.09540216
      ],
      [
        -0.040011495,
        0.021625593,
        0.085010864,
        0.101994656
      ],
      [
        -0.027540661,
        -0.10167564,
        -0.0619952,
        0.057244085
      ],
      [
        -0.03977671,
        -0.027267246,
        0.078344434,
        0.0889465
      ]
    ],
    "OutputBias": [
      -0.048349556,
      -0.048535924,
      0.067643076,
      0.029242406
    ]
  }
}
