{
  "Config": {
    "VocabSize": 4,
    "EmbeddingSize": 32,
    "ContextSize": 8192
  },
  "Weights": {
    "Embeddings": [
      [
        0.07098319,
        -0.003328035,
        0.015717858,
        -0.08783696,
        -0.0016434427,
        0.021839537,
        0.0282465,
        0.029319247,
        0.038509704,
        0.06108466,
        0.06636169,
        0.044149283,
        -0.02201878,
        -0.07666787,
        -0.07966262,
        -0.005911642,
        0.07259971,
        0.09080115,
        0.010379982,
        0.09016091,
        0.053234298,
        -0.07527469,
        0.0141976345,
        0.023133775,
        -0.04759814,
        -0.01154946,
        -0.022787632,
        0.036056776,
        0.05858388,
        -0.018965315,
        -0.05437677,
        0.03871934
      ],
      [
        0.024291782,
        -0.014528575,
        0.025230754,
        -0.02581784,
        -0.03713711,
        0.041084133,
        -0.06095043,
        0.07967798,
        0.061677568,
        -0.02901576,
        0.08706476,
        -0.07487946,
        0.054811772,
        0.090964824,
        0.09036306,
        0.0803266,
        0.061038356,
        -0.060930833,
        0.07677681,
        0.049444642,
        0.0017289744,
        -0.08269695,
        0.07645653,
        -0.0030167152,
        0.003205068,
        0.052961618,
        -0.07581314,
        -0.047646172,
        -0.019408923,
        -0.022863556,
        -0.06383831,
        -0.0618862
      ],
      [
        -0.071003154,
        0.04489004,
        0.00090136763,
        0.049101543,
        0.06714446,
        0.038470432,
        0.08991852,
        -0.055386484,
        0.0023912769,
        0.052450065,
        0.061049487,
        0.08738792,
        -0.09374427,
        -0.039861698,
        -0.08646991,
        0.051571034,
        -0.07397789,
        0.019123558,
        0.01213281,
        0.07836462,
        0.017057084,
        0.029205227,
        -0.05556154,
        0.009888192,
        -0.07386074,
        0.09616044,
        -0.028518427,
        -0.0056004417,
        0.021416873,
        -0.07599958,
        -0.016913578,
        0.06371774
      ],
      [
        -0.051073045,
        0.09700598,
        -0.060725123,
        0.04828756,
        0.045155615,
        0.07500086,
        -0.009365767,
        -0.04215578,
        -0.07753075,
        -0.09673063,
        0.035897084,
        -0.02234794,
        -0.02332651,
        0.046956386,
        -0.036617298,
        -0.013614774,
        -0.038165864,
        0.07457838,
        0.016912747,
        -0.099812716,
        0.06608387,
        -0.0016449626,
        -0.02214728,
        -0.011571334,
        0.04379826,
        0.07650885,
        -0.0837833,
        0.0350668,
        -0.061064824,
        0.046505112,
        -0.034787524,
        -0.045251466
      ]
    ],
    "OutputWeights": [
      [
        -0.05155136,
        -0.07189432,
        -0.076830275,
        0.00930362
      ],
      [
        0.07927945,
        0.0979344,
        -0.029783498,
        0.028488755
      ],
      [
        0.008553221,
        -0.092600085,
        -0.03443318,
        0.031795256
      ],
      [
        0.053039446,
        0.049282562,
        -0.020604873,
        -0.05389282
      ],
      [
        0.023138195,
        -0.06396936,
        -0.062677234,
        0.07816346
      ],
      [
        -0.050094865,
        0.05253355,
        -0.036136672,
        -0.06206209
      ],
      [
        0.09293736,
        -0.0028198236,
        -0.035428185,
        -0.058398344
      ],
      [
        0.06700902,
        0.051403914,
        0.059676453,
        0.0010377119
      ],
      [
        0.08783718,
        0.019867625,
        -0.07618433,
        0.067181274
      ],
      [
        0.029794773,
        -0.04738182,
        -0.08717943,
        -0.072546445
      ],
      [
        -0.01928768,
        -0.0803181,
        -0.034742493,
        -0.031468645
      ],
      [
        0.09638679,
        0.0856069,
        -0.07773203,
        0.06926119
      ],
      [
        0.009671928,
        0.06585838,
        -0.010238528,
        -0.00950893
      ],
      [
        0.019983768,
        -0.05470477,
        0.03647392,
        -0.042997632
      ],
      [
        -0.09575769,
        0.09512768,
        0.041942608,
        0.013851396
      ],
      [
        0.09387843,
        -0.046895895,
        0.06785663,
        -0.087025225
      ],
      [
        -0.008008308,
        -0.0680871,
        -0.08197066,
        0.0575704
      ],
      [
        0.012932551,
        -0.08822316,
        0.014802502,
        0.070582904
      ],
      [
        -0.025692368,
        -0.06401093,
        0.059355102,
        -0.02314316
      ],
      [
        0.081002265,
        0.044679202,
        -0.08053982,
        -0.043503474
      ],
      [
        -0.055965453,
        -0.002977188,
        -0.051375184,
        -0.098672494
      ],
      [
        0.061815027,
        -0.051870733,
        -0.07776056,
        -0.0058849445
      ],
      [
        0.02191577,
        -0.08326133,
        -0.0021712147,
        0.02000405
      ],
      [
        0.08411019,
        0.06637336,
        -0.026414027,
        -0.041944433
      ],
      [
        -0.04444498,
        -0.07716743,
        0.067421764,
        -0.066149145
      ],
      [
        -0.09483847,
        -0.09552296,
        0.055835858,
        0.033021823
      ],
      [
        0.07954698,
        -0.07353146,
        -0.07659703,
        -0.07113463
      ],
      [
        0.042668324,
        -0.03263921,
        -0.030162776,
        0.09804576
      ],
      [
        0.041834004,
        -0.07972787,
        -0.08652118,
        0.057996396
      ],
      [
        0.039499566,
        0.049493734,
        -0.09316134,
        -0.07139084
      ],
      [
        0.096390024,
        -0.064355396,
        -0.02686746,
        0.07445045
      ],
      [
        -0.06804522,
        0.013381689,
        0.008660718,
        -0.02456879
      ]
    ],
    "OutputBias": [
      -0.04879465,
      -0.048745666,
      0.068278976,
      0.029261347
    ]
  }
}