{
  "Config": {
    "VocabSize": 4,
    "EmbeddingSize": 32,
    "ContextSize": 8192
  },
  "Weights": {
    "Embeddings": [
      [
        0.058765944,
        -0.004792809,
        -0.08925675,
        0.05500271,
        0.0009478798,
        -0.07658707,
        0.029609783,
        0.077060156,
        0.029586507,
        -0.005060648,
        0.08204393,
        0.020090947,
        -0.031208185,
        0.087635055,
        -0.027069429,
        0.055575386,
        -0.04447884,
        -0.028659154,
        -0.058971554,
        -0.015321249,
        -0.038961314,
        -0.074318856,
        -0.044820882,
        -0.06776359,
        -0.030958977,
        -0.038194645,
        0.015291326,
        0.09044787,
        -0.03247643,
        0.026570667,
        -0.0075118896,
        0.09902944
      ],
      [
        -0.09532636,
        -0.07314927,
        -0.037179966,
        -0.014236695,
        -0.0030812924,
        -0.024651954,
        -0.08170824,
        -0.040698946,
        0.08759035,
        0.035300083,
        -0.081439264,
        -0.04786565,
        -0.07457636,
        0.017570922,
        0.082102336,
        -0.02195221,
        -0.07306808,
        0.07749205,
        0.039155927,
        -0.08011558,
        0.0036461612,
        -0.027860831,
        0.05058531,
        0.009581304,
        -0.0011197649,
        0.07731631,
        0.09007493,
        0.014856743,
        -0.010209403,
        0.053029183,
        0.093458995,
        -0.08588249
      ],
      [
        -0.030634996,
        0.05879591,
        -0.07230595,
        -0.037564855,
        0.07846102,
        -0.05429648,
        0.09426969,
        -0.08998827,
        -0.0108624445,
        -0.046537668,
        -0.038111657,
        0.07361482,
        -0.09564698,
        -0.0030400143,
        1.364285E-05,
        -0.09567412,
        -0.019170165,
        -0.0043407017,
        -0.0706206,
        -0.03516287,
        0.014285841,
        -0.09525137,
        -0.06631946,
        0.082223214,
        0.0937687,
        -0.09746112,
        -0.018205704,
        0.0003001783,
        -0.01899946,
        -0.0057593365,
        0.02377478,
        0.08318446
      ],
      [
        0.07320399,
        -0.028720967,
        0.07917743,
        -0.08544394,
        -0.050291814,
        -0.049328133,
        0.0679696,
        -0.028908592,
        0.06678609,
        -0.040117744,
        0.056587096,
        -0.08093742,
        0.00660944,
        -0.064977996,
        -0.02372997,
        0.025318462,
        0.06650368,
        -0.033896424,
        0.011381299,
        -0.07824691,
        -0.096992075,
        -0.0013805302,
        -0.03129865,
        -0.07718372,
        -0.038235474,
        -0.026014484,
        0.083500795,
        0.058493856,
        -0.053038713,
        -0.055058707,
        0.05690744,
        0.08430873
      ]
    ],
    "OutputWeights": [
      [
        0.030815205,
        0.054740477,
        -0.069094114,
        0.057436705
      ],
      [
        -0.018731818,
        -0.05182584,
        -0.07965212,
        -0.007957807
      ],
      [
        -0.007133524,
        0.029037578,
        -0.07679465,
        0.013478821
      ],
      [
        -0.03101626,
        -0.014011887,
        0.05905573,
        -0.07374269
      ],
      [
        -0.029314244,
        0.005876564,
        -0.067575,
        -0.061392345
      ],
      [
        0.067357786,
        0.029399771,
        0.055805765,
        0.029886842
      ],
      [
        0.037815955,
        0.09416177,
        -0.021454984,
        -0.08247212
      ],
      [
        -0.08796573,
        0.09478473,
        -0.0035311508,
        0.046477094
      ],
      [
        0.07186426,
        0.03410825,
        -0.02447729,
        0.06381669
      ],
      [
        0.074017055,
        0.07515259,
        0.032668807,
        -0.008827093
      ],
      [
        -0.026656413,
        0.0031047002,
        0.074430756,
        -0.067011446
      ],
      [
        0.006061501,
        -0.09750839,
        -0.05512961,
        0.03712479
      ],
      [
        0.09987376,
        0.029526424,
        -0.042064015,
        0.019402105
      ],
      [
        0.041743208,
        -0.027831478,
        -0.03176153,
        0.032017026
      ],
      [
        -0.0436266,
        0.034155488,
        -0.03751832,
        0.003575483
      ],
      [
        -0.0075271055,
        0.023750206,
        0.08059401,
        -0.04601091
      ],
      [
        -0.040441073,
        0.055413783,
        -0.052642558,
        -0.031146878
      ],
      [
        0.07418086,
        0.079977326,
        -0.095038004,
        -0.043564335
      ],
      [
        0.09139429,
        -0.09696728,
        -0.056814086,
        0.08663985
      ],
      [
        -0.011706449,
        -0.088371046,
        0.06747759,
        -0.034788415
      ],
      [
        0.09627624,
        -0.050823644,
        0.08459524,
        -0.091815166
      ],
      [
        0.009712226,
        -0.02707785,
        -0.009775005,
        0.0803165
      ],
      [
        -0.018348787,
        -0.0012535743,
        -0.044516366,
        0.02806054
      ],
      [
        -0.047121,
        0.026747363,
        -0.02507813,
        -0.057791524
      ],
      [
        0.06452775,
        0.049895354,
        -0.05750313,
        -0.021226918
      ],
      [
        0.07832296,
        -0.021995988,
        -0.09672104,
        -0.083327286
      ],
      [
        0.03465269,
        0.048149325,
        -0.09370692,
        -0.009884756
      ],
      [
        0.07373928,
        0.07408355,
        0.029267153,
        -0.09230083
      ],
      [
        -0.035209145,
        -0.041930404,
        -0.07848238,
        -0.08679623
      ],
      [
        0.042747267,
        -0.048133094,
        -0.027546516,
        0.02144078
      ],
      [
        0.014428379,
        -0.059505288,
        0.08849093,
        0.10387854
      ],
      [
        -0.027860548,
        0.028916454,
        0.049557768,
        0.007529819
      ]
    ],
    "OutputBias": [
      -0.04915753,
      -0.048925906,
      0.029733254,
      0.06835018
    ]
  }
}