{
  "Config": {
    "VocabSize": 4,
    "EmbeddingSize": 32,
    "ContextSize": 8192
  },
  "Weights": {
    "Embeddings": [
      [
        0.06472755,
        0.06692713,
        -0.08799341,
        -0.0131324325,
        0.039871555,
        0.04520119,
        -0.058616232,
        -0.00013977462,
        0.027260082,
        0.10064665,
        -0.049140032,
        -0.0754959,
        -0.0970051,
        -0.029979562,
        -0.097243674,
        -0.088293605,
        -0.039322842,
        0.09482119,
        -0.00087707245,
        -0.0077556632,
        0.07562914,
        -0.05940184,
        0.03721179,
        0.007655358,
        0.046451416,
        -0.06258287,
        0.047219854,
        -0.048231713,
        -0.072733104,
        0.07628859,
        0.02540033,
        -0.07208349
      ],
      [
        -0.09645646,
        -0.07599018,
        -0.035920497,
        0.09369914,
        -0.08955623,
        -0.0060888203,
        0.027494093,
        -0.05940194,
        0.10378701,
        -0.009710553,
        0.06793015,
        0.07303466,
        0.009080408,
        0.030569522,
        -0.0722766,
        -0.05093237,
        0.0063562477,
        -0.024087101,
        -0.03737863,
        -0.017901367,
        0.029974565,
        -0.08019139,
        -0.101077646,
        -0.007975943,
        -0.023554385,
        -0.01692364,
        0.04918939,
        0.014125835,
        0.090583645,
        0.018182216,
        0.07021159,
        -0.0065660803
      ],
      [
        -0.011845416,
        0.041099105,
        -0.050135594,
        -0.016652867,
        0.06960306,
        -0.103200026,
        0.09781847,
        0.0023815439,
        -0.0108930515,
        0.07288339,
        0.024000512,
        0.055459946,
        0.08650686,
        0.03187336,
        -0.09316286,
        -0.05714212,
        0.095563345,
        0.05299018,
        0.00035104502,
        0.037343476,
        -0.060518928,
        0.004609369,
        -0.06285562,
        0.096338965,
        -0.033835173,
        0.032955218,
        0.03946792,
        0.055319842,
        0.07784805,
        -0.022841055,
        0.09658282,
        0.0008074605
      ],
      [
        0.073549934,
        -0.0035370972,
        -0.05372706,
        0.08302485,
        0.049724523,
        -0.028870836,
        -0.07023728,
        -0.07536353,
        -0.06290962,
        0.002299088,
        0.049887877,
        -0.034309983,
        -0.074174434,
        -0.088583395,
        -0.041987047,
        0.086695045,
        0.042059723,
        -0.033585597,
        0.03780441,
        0.0090921065,
        -0.054399166,
        -0.0021923634,
        0.042690884,
        -0.083954476,
        0.09468563,
        -0.05402472,
        0.04319806,
        -0.015692852,
        0.005950521,
        0.08168661,
        0.06916928,
        -0.09053108
      ]
    ],
    "OutputWeights": [
      [
        -0.022426859,
        0.05911716,
        0.09537415,
        0.009297516
      ],
      [
        0.045574736,
        0.0032746324,
        -0.049904663,
        -0.00946178
      ],
      [
        0.037987407,
        -0.079360805,
        0.021427704,
        0.034222513
      ],
      [
        0.066355735,
        -0.0011312534,
        0.05953583,
        0.05252486
      ],
      [
        -0.034045868,
        -0.0073479176,
        -0.09027564,
        -0.067302994
      ],
      [
        0.05896187,
        0.03037646,
        0.05956608,
        -0.07649483
      ],
      [
        0.01388759,
        -0.071555674,
        -0.02432711,
        -0.0056568086
      ],
      [
        -0.010904936,
        0.0062367064,
        0.023656784,
        -0.062179904
      ],
      [
        -0.05579067,
        -0.058461707,
        0.02018036,
        0.095565714
      ],
      [
        0.0021437733,
        -0.06944118,
        0.052420896,
        -0.047843676
      ],
      [
        0.02177699,
        -0.054694623,
        -0.016381316,
        0.055629272
      ],
      [
        -0.04566395,
        0.010082121,
        0.027716028,
        0.029284261
      ],
      [
        0.029499253,
        0.09199271,
        -0.09491641,
        -0.08624748
      ],
      [
        0.043312404,
        -0.0758959,
        0.066848025,
        0.082930624
      ],
      [
        0.07244716,
        -0.036827836,
        0.00198577,
        -0.05960096
      ],
      [
        0.04407912,
        -0.022331703,
        0.04894735,
        0.00092986715
      ],
      [
        0.09253806,
        0.0075319484,
        -0.09991106,
        -0.006267832
      ],
      [
        -0.09406051,
        -0.09063618,
        0.08049664,
        0.08155478
      ],
      [
        -0.04773579,
        0.05085833,
        0.0693374,
        -0.05816629
      ],
      [
        0.07871705,
        -0.031199638,
        0.06634986,
        0.048655376
      ],
      [
        0.03437767,
        0.009173811,
        0.010045687,
        -0.051327474
      ],
      [
        -0.08757247,
        -0.051122833,
        0.08507777,
        0.026759857
      ],
      [
        0.09640005,
        0.021045456,
        -0.0050228117,
        0.029830977
      ],
      [
        -0.0068738423,
        -0.0882182,
        0.028825512,
        0.07048336
      ],
      [
        -0.054097112,
        0.02955108,
        0.06761239,
        -0.01552089
      ],
      [
        0.05766165,
        0.015214672,
        0.007143118,
        -0.05208076
      ],
      [
        -0.043071732,
        -0.052434843,
        -0.09576809,
        -0.08122928
      ],
      [
        0.09618048,
        0.07730476,
        -0.045662552,
        -0.010308912
      ],
      [
        0.025401054,
        0.013688045,
        0.016039062,
        -0.070318215
      ],
      [
        0.06199691,
        0.088239916,
        -0.08891321,
        -0.08413762
      ],
      [
        0.003386393,
        0.07214279,
        -0.09205445,
        0.089793876
      ],
      [
        -0.06837648,
        0.008663939,
        -0.012788739,
        -0.058978293
      ]
    ],
    "OutputBias": [
      -0.048711747,
      -0.049016673,
      0.050050758,
      0.047677655
    ]
  }
}