{
  "Config": {
    "VocabSize": 4,
    "EmbeddingSize": 32,
    "ContextSize": 8192
  },
  "Weights": {
    "Embeddings": [
      [
        0.031800963,
        0.06584241,
        0.092874296,
        -0.020115716,
        -0.09636428,
        0.0150411455,
        -0.020435939,
        -0.045126628,
        0.083832726,
        -0.051041257,
        0.024780013,
        0.021797784,
        0.03457391,
        0.0290043,
        -0.030385789,
        0.037862416,
        -0.047594137,
        -0.07651432,
        0.078823365,
        0.02624652,
        0.035013974,
        0.039667033,
        -0.079890095,
        0.04514303,
        0.018312588,
        -0.07932899,
        0.029468711,
        -0.032521345,
        -0.011929726,
        -0.008341547,
        0.077481136,
        -0.06817028
      ],
      [
        0.055931065,
        0.096626945,
        -0.04045536,
        0.01111958,
        -0.05753215,
        0.088967964,
        0.088367686,
        -0.027060667,
        0.025128447,
        0.022101838,
        -0.055682898,
        0.061954156,
        0.0385128,
        0.016572505,
        0.06211845,
        -0.07311955,
        -0.073384725,
        -0.052248664,
        0.012433419,
        0.04758035,
        0.061974004,
        -0.0685709,
        -0.05052541,
        0.03740572,
        0.07617179,
        0.039790507,
        -0.09524784,
        -0.06989729,
        0.06819846,
        0.028776983,
        0.05418114,
        0.017080389
      ],
      [
        0.062322285,
        -0.059089802,
        -0.085366294,
        -0.039667476,
        0.06983515,
        0.02594786,
        0.096492015,
        -0.0876613,
        0.02997089,
        0.035623804,
        0.0501641,
        -0.096658684,
        0.024939591,
        0.034631703,
        0.07334667,
        -0.06835459,
        0.016987648,
        -0.084133185,
        -0.09093319,
        0.0018329219,
        0.0040540346,
        0.019593248,
        -0.031011775,
        -0.022020614,
        -0.010177469,
        0.05306509,
        0.090017244,
        0.09218669,
        0.040431008,
        -0.051743805,
        0.021134596,
        -0.08086035
      ],
      [
        -0.050899494,
        -0.07572741,
        0.09744689,
        0.014218096,
        -0.020614706,
        0.028583772,
        -0.0961934,
        -0.026168413,
        -0.09260579,
        -0.09149662,
        0.045150388,
        -0.013949462,
        0.059263915,
        -0.05385098,
        0.07835154,
        -0.04888387,
        0.03046847,
        -0.01791571,
        0.063084595,
        0.03675089,
        -0.042605206,
        -0.03915901,
        0.08652502,
        0.044348214,
        0.07892927,
        0.06643326,
        -0.041160632,
        0.012402273,
        0.038904622,
        0.02422052,
        -0.0059626256,
        0.077670075
      ]
    ],
    "OutputWeights": [
      [
        -0.03734453,
        0.031327743,
        -0.092245065,
        -0.06026769
      ],
      [
        0.0019964122,
        0.04408331,
        -0.036153182,
        0.06064781
      ],
      [
        0.05447194,
        0.01820665,
        0.03296524,
        -0.0033893466
      ],
      [
        0.005934671,
        -0.0077633928,
        -0.027689088,
        0.058668356
      ],
      [
        0.020957233,
        -0.030486647,
        -0.033284828,
        -0.05883923
      ],
      [
        0.040619433,
        0.014515273,
        0.08902159,
        0.0052066008
      ],
      [
        0.06736107,
        0.012492117,
        -0.07651627,
        0.034762833
      ],
      [
        0.08904503,
        -0.041392375,
        -0.00787981,
        -0.06678945
      ],
      [
        0.021261515,
        -0.03309907,
        0.069766626,
        -0.08058988
      ],
      [
        -0.05648681,
        -0.07141207,
        0.03310053,
        0.026109323
      ],
      [
        0.005885098,
        0.020818928,
        -0.07557024,
        0.013463547
      ],
      [
        -0.06266866,
        -0.09146947,
        0.07309519,
        -0.011167225
      ],
      [
        -0.051400166,
        -0.09217531,
        -0.093350194,
        -0.036908656
      ],
      [
        -0.06597509,
        -0.021359757,
        -0.060002863,
        -0.028966025
      ],
      [
        0.088698424,
        0.04361319,
        -0.04044058,
        0.027725855
      ],
      [
        0.0352329,
        -0.09411966,
        -0.025877006,
        -0.035069093
      ],
      [
        0.0030716632,
        -0.06515565,
        -0.00016665715,
        -0.056148853
      ],
      [
        0.01601335,
        0.008187273,
        0.067311116,
        -0.07518564
      ],
      [
        -0.09977119,
        -0.07938532,
        0.098190665,
        -0.023251185
      ],
      [
        0.031310044,
        -0.042118233,
        0.091397874,
        0.074635565
      ],
      [
        0.094492175,
        -0.029765045,
        0.059230402,
        -0.0012972981
      ],
      [
        -0.044165123,
        0.09235956,
        -0.0033221324,
        -0.029307175
      ],
      [
        -0.021234185,
        -0.0452429,
        -0.052826077,
        0.032111533
      ],
      [
        0.06866555,
        -0.096976675,
        0.015213274,
        0.08485446
      ],
      [
        -0.030792808,
        0.093806416,
        -0.0132297175,
        0.044978626
      ],
      [
        -0.07352215,
        -0.013591848,
        -0.08945916,
        0.101921275
      ],
      [
        -0.011911984,
        -0.05048386,
        -0.09662346,
        -0.09410577
      ],
      [
        -0.02902235,
        0.06294227,
        -0.08159035,
        0.06001106
      ],
      [
        0.031933762,
        -0.0029740566,
        -0.044734005,
        0.008599026
      ],
      [
        0.030252038,
        0.051816676,
        -0.00052068545,
        -0.03903931
      ],
      [
        0.057145137,
        0.059050586,
        0.06026552,
        0.09475591
      ],
      [
        -0.053954627,
        0.09902707,
        0.03970458,
        -0.0689242
      ]
    ],
    "OutputBias": [
      -0.04877066,
      -0.048738547,
      0.069142744,
      0.028366456
    ]
  }
}