{
  "Config": {
    "VocabSize": 4,
    "EmbeddingSize": 32,
    "ContextSize": 8192
  },
  "Weights": {
    "Embeddings": [
      [
        -0.037865933,
        -0.08206846,
        0.036174476,
        0.06457527,
        -0.07516431,
        -0.050655495,
        -0.004846832,
        -0.09163714,
        -0.03197086,
        -0.047200717,
        -0.06278389,
        -0.032093585,
        -0.03247931,
        -0.056417856,
        -0.100315236,
        -0.06972655,
        -0.043541003,
        0.025307052,
        0.012509848,
        0.0018685748,
        -0.095928535,
        -0.06756144,
        -0.0029913373,
        -0.032691147,
        0.07505371,
        0.09048584,
        -0.053805925,
        0.065178104,
        0.030136766,
        0.06353422,
        0.088734254,
        -0.07069809
      ],
      [
        0.08374226,
        -0.08897781,
        0.020550141,
        -0.06721559,
        -0.038188335,
        -0.09163129,
        -0.05035864,
        -0.060776375,
        0.00461043,
        -0.037012093,
        0.06316869,
        -0.058841687,
        -0.052407485,
        0.05033209,
        -0.100039154,
        0.03170303,
        -0.055011388,
        -0.065096006,
        -0.08418086,
        0.047819186,
        -0.05915728,
        0.07629899,
        -0.08418946,
        -0.08374128,
        0.09856504,
        0.021918828,
        -0.094881825,
        -0.09439874,
        -0.032363635,
        0.005330869,
        0.06986405,
        -0.035689365
      ],
      [
        0.07120903,
        0.050210938,
        -0.07340521,
        -0.08843862,
        -0.02319243,
        0.0023266892,
        -0.019676192,
        0.041237496,
        0.081782565,
        -0.043959532,
        -0.063462146,
        0.074248075,
        0.012940345,
        0.04748002,
        -0.02673971,
        0.004570171,
        -0.086601846,
        -0.014185484,
        0.046343297,
        -0.059629265,
        -0.062417783,
        -0.058062777,
        -0.055324256,
        0.09093615,
        0.052064914,
        0.057943396,
        0.037367024,
        -0.09199131,
        -0.04740263,
        -0.05008197,
        0.025138455,
        0.010136229
      ],
      [
        -0.0025463288,
        0.066887096,
        -0.02732144,
        0.0163359,
        -0.0346705,
        -0.059203073,
        0.010876122,
        -0.035770465,
        -0.034943443,
        -0.05939475,
        -0.011510702,
        0.041709937,
        0.0950426,
        -0.08961161,
        -0.061962113,
        -0.05361828,
        0.02747593,
        0.065493286,
        0.046967108,
        -0.012414212,
        0.067385964,
        -0.05532658,
        -0.04431669,
        0.04969699,
        -0.026763022,
        -0.023900859,
        0.050353296,
        0.08521536,
        0.08675209,
        0.030114837,
        -0.08136831,
        -0.06467899
      ]
    ],
    "OutputWeights": [
      [
        0.01728683,
        -0.058275793,
        -0.055769574,
        -0.07939734
      ],
      [
        0.011438171,
        0.009191349,
        0.033987295,
        -0.050638318
      ],
      [
        -0.024123335,
        0.08297667,
        0.0022680413,
        0.037975844
      ],
      [
        0.026076557,
        -0.008791818,
        0.073290884,
        0.0047018817
      ],
      [
        -0.050453074,
        0.09440531,
        -0.10103064,
        0.09365039
      ],
      [
        0.048993096,
        0.060944736,
        0.025316782,
        -0.04598477
      ],
      [
        0.07888312,
        0.09902991,
        0.03240688,
        0.04264433
      ],
      [
        0.018259656,
        0.06138806,
        -0.055991936,
        -0.087889336
      ],
      [
        -0.054196354,
        -0.008652398,
        -0.020154962,
        -0.051774427
      ],
      [
        -0.09009023,
        -0.025727699,
        0.056005985,
        0.06481794
      ],
      [
        0.013504253,
        0.093736574,
        -0.028765533,
        0.05624296
      ],
      [
        0.00580055,
        0.009649009,
        0.061575826,
        0.056491908
      ],
      [
        0.013172064,
        -0.03901436,
        -0.08224482,
        -0.061648328
      ],
      [
        0.040616747,
        -0.08482912,
        -0.03942923,
        0.032194916
      ],
      [
        0.07742591,
        0.057524662,
        -0.013875133,
        0.031789657
      ],
      [
        -0.06691113,
        -0.05472885,
        0.05921274,
        0.06352849
      ],
      [
        0.0046363887,
        -0.023638891,
        -0.010956948,
        0.035730347
      ],
      [
        0.066535436,
        0.07076359,
        -0.02955162,
        0.05660253
      ],
      [
        -0.06155025,
        -0.017786287,
        0.033994067,
        -0.04254894
      ],
      [
        -0.09840733,
        -0.050649986,
        -0.07297721,
        0.06271809
      ],
      [
        0.0024802973,
        0.03988493,
        -0.032650054,
        -0.07576564
      ],
      [
        -0.06571914,
        -0.062654756,
        0.029859481,
        0.028534394
      ],
      [
        0.07100107,
        -0.04976451,
        -0.016087536,
        -0.049762547
      ],
      [
        -0.035843335,
        0.071521096,
        0.007626115,
        -0.0031132011
      ],
      [
        -0.043784115,
        -0.041498456,
        0.0018467157,
        -0.026075454
      ],
      [
        -0.022907693,
        0.040118787,
        -0.027747303,
        0.06639971
      ],
      [
        0.009874885,
        0.039392307,
        0.054097388,
        0.08061497
      ],
      [
        -0.07668866,
        0.10079413,
        0.0019075433,
        0.046686932
      ],
      [
        0.005395702,
        0.09838708,
        -0.07767251,
        -0.045485083
      ],
      [
        0.09045916,
        -0.08147743,
        -0.082959995,
        -0.08131589
      ],
      [
        0.02600067,
        -0.08084161,
        0.071669474,
        -0.015654907
      ],
      [
        0.017079609,
        0.084653206,
        0.08617128,
        0.043978408
      ]
    ],
    "OutputBias": [
      -0.04912242,
      -0.047640085,
      0.05783665,
      0.038925856
    ]
  }
}